tree
version=v4
num_class=1
num_tree_per_iteration=1
label_index=0
max_feature_idx=16
objective=binary sigmoid:1
feature_names=Age No_of_Pregnancy Gestation_in_previous_Pregnancy BMI HDL Family_History unexplained_prenetal_loss Large_Child_or_Birth_Default PCOS Sys_BP Dia_BP OGTT Hemoglobin Sedentary_Lifestyle Prediabetes MAP BMI_category
feature_infos=[20:45] [1:4] [0:2] [15:45] [20:70] [0:1] [0:1] [0:1] [0:1] [90:185] [60:124] [80:300] [9:18] [0:1] [0:1] [70.333333333333329:141.33333333333334] [0:3]
tree_sizes=1685 1691 1680 1683 1702 1683 1689 1691 1706 1712 1698 1703 1707 1710 1703 1708 1713 1696 1711 1716 1704 1710 1704 1709 1708 1696 1705 1700 1711 1693 1702 1711 1715 1697 1719 1713 1715

Tree=0
num_leaves=15
num_cat=0
split_feature=11 10 14 4 7 9 3 10 4 9 7 10 4 0
split_gain=2623.75 203.426 61.499 25.9153 23.5147 22.5063 13.4705 12.8048 6.68386 3.37581 2.43885 1.9589 15.1322 1.91707
threshold=159.50000000000003 86.500000000000014 1.0000000180025095e-35 48.345602195899858 1.0000000180025095e-35 174.50000000000003 25.050000000000004 76.500000000000014 57.783112531623701 138.50000000000003 1.0000000180025095e-35 78.500000000000014 38.35072855343153 34.500000000000007
decision_type=10 2 2 2 2 10 2 2 2 10 2 2 2 2
left_child=1 2 5 6 13 9 -2 -4 -5 -1 -10 12 -8 -3
right_child=3 4 7 8 -6 -7 11 -9 10 -11 -12 -13 -14 -15
leaf_value=-0.56594953490142363 -0.43432293543187944 -0.31888840091579007 -0.47328784099565263 -0.45719001438886586 -0.4684788710761198 -0.30755819133498385 -0.44557176805980664 -0.26633734166402073 -0.29136798522095642 -0.48856060687539415 -0.38304885953754575 -0.2681977599502493 -0.26949022071362805 -0.26633731567243135
leaf_weight=340.76599368453026 2.5447711944580069 5.4231044054031399 2.4099111855030051 4.1064253151416761 4.5820233523845664 1.7284351289272297 2.7825702130794552 4.0992493033409119 2.8464122116565704 2.8855092227458945 3.0522902309894562 306.36481767892838 22.597340673208237 10.061793744564055
leaf_count=1433 9 16 9 15 17 5 10 11 8 11 10 825 61 27
internal_value=-0.416143 -0.547338 -0.559921 -0.274408 -0.326696 -0.56401 -0.271026 -0.342957 -0.387396 -0.5653 -0.338808 -0.269774 -0.288795 -0.284742
internal_weight=716.251 371.956 351.889 344.295 20.0669 345.38 334.289 6.50916 10.0051 343.652 5.8987 331.745 25.3799 15.4849
internal_count=2467 1529 1469 938 60 1449 905 20 33 1444 18 896 71 43
is_linear=0
shrinkage=1


Tree=1
num_leaves=15
num_cat=0
split_feature=11 10 14 4 9 7 3 10 4 9 7 11 10 4
split_gain=2222.56 179.507 54.6497 20.7291 19.8775 19.2743 10.8511 10.5093 5.57697 3.12792 1.97708 1.69917 1.53772 12.2466
threshold=159.50000000000003 86.500000000000014 1.0000000180025095e-35 48.345602195899858 174.50000000000003 1.0000000180025095e-35 25.050000000000004 76.500000000000014 57.783112531623701 138.50000000000003 1.0000000180025095e-35 149.50000000000003 78.500000000000014 38.35072855343153
decision_type=10 2 2 2 10 2 2 2 2 10 2 10 2 2
left_child=1 2 4 6 9 11 -2 -4 -5 -1 -10 -3 13 -8
right_child=3 5 7 8 -6 -7 12 -9 10 -11 -12 -13 -14 -15
leaf_value=-0.11170330228825751 0.013805835186708248 0.11638947793095004 -0.022463072080540051 -0.0073990527723302724 0.12800751495427207 -0.017950668286631367 0.0034021736894016075 0.16423792719781713 0.14227696317195007 -0.036865709912665495 0.060611897350563791 0.16516133782957179 0.16260944545776496 0.16147779071287144
leaf_weight=331.0279201567173 2.5530348122119895 5.573467671871188 2.3968122452497473 4.0991562455892545 1.7748148441314686 4.5621871948242179 2.784815892577174 4.2340423166751862 2.929832398891449 2.8595028668642035 3.0940092355012894 10.378013700246809 316.36063599586487 23.330598086118698
leaf_count=1433 9 16 9 15 5 17 10 11 8 11 10 27 825 61
internal_value=0.0304984 -0.0935284 -0.105797 0.157198 -0.109798 0.111187 0.160147 0.0967523 0.0567077 -0.111062 0.100332 0.14812 0.161238 0.144621
internal_weight=717.959 362.807 342.293 355.152 335.662 20.5137 345.029 6.63085 10.123 333.887 6.02384 15.9515 342.476 26.1154
internal_count=2467 1529 1469 938 1449 60 905 20 33 1444 18 43 896 71
is_linear=0
shrinkage=0.0712475


Tree=2
num_leaves=15
num_cat=0
split_feature=11 9 12 11 10 4 5 4 3 15 4 15 7 10
split_gain=1912.2 116.38 37.6279 34.2228 23.4788 17.3071 14.5232 10.0233 9.07617 8.41419 4.71132 3.2853 1.65959 1.29099
threshold=156.50000000000003 129.50000000000003 16.350000000000005 159.50000000000003 86.500000000000014 48.345602195899858 1.0000000180025095e-35 44.263189017990264 25.050000000000004 107.83333333333336 57.783112531623701 124.16666666666667 1.0000000180025095e-35 76.500000000000014
decision_type=10 10 2 10 2 2 2 2 2 8 2 8 2 2
left_child=1 2 -1 4 6 8 -2 9 -5 -3 -7 -9 -12 -10
right_child=3 7 -4 5 -6 10 -8 11 13 -11 12 -13 -14 -15
leaf_value=-0.10712131507324497 -0.10766627169227401 -0.080417983625421754 0.13294292663048238 0.012783556515884619 0.153369241851017 -0.0068838519112035517 0.1000136738108878 0.13373426225326576 0.13085945730270893 0.06662771194555521 0.13000842224655398 0.049182786676783261 0.055677689016304162 0.14855597379695351
leaf_weight=315.36529117822647 5.8175340294837934 3.1956747323274621 3.3495155274868003 2.5604655146598807 4.6667471826076499 4.0922937393188459 2.4204361140727997 8.9970398992299998 22.364739760756493 5.1729518324136743 2.97588811814785 3.1493387073278436 3.1269174069166183 325.29745541512966
leaf_count=1411 26 13 9 9 12 15 7 25 60 16 8 10 10 836
internal_value=0.0284292 -0.0940108 -0.104598 0.139688 0.0256852 0.143769 -0.0466469 0.0704742 0.146433 0.0104763 0.0522623 0.111812 0.0919233 0.147418
internal_weight=712.552 339.23 318.715 373.322 12.9047 360.418 8.23797 20.515 350.223 8.36863 10.1951 12.1464 6.10281 347.662
internal_count=2467 1484 1420 983 45 938 33 64 905 29 33 35 18 896
is_linear=0
shrinkage=0.0712475


Tree=3
num_leaves=15
num_cat=0
split_feature=11 9 14 11 10 4 4 3 15 4 10 11 9 11
split_gain=1664.97 104.923 34.4128 28.8122 20.564 15.2401 8.44947 7.78405 7.30765 5.70657 4.46332 2.84973 1.30441 2.94973
threshold=156.50000000000003 129.50000000000003 1.0000000180025095e-35 159.50000000000003 81.500000000000014 52.850333978420785 44.263189017990264 24.950000000000003 110.16666666666667 58.500000000000007 86.500000000000014 136.50000000000003 176.50000000000003 218.50000000000003
decision_type=10 10 2 10 2 2 2 2 10 2 2 10 10 10
left_child=1 2 -1 4 -2 7 8 -5 -3 -7 -6 -8 -9 -14
right_child=3 6 -4 5 10 9 11 12 -10 -11 -12 -13 13 -15
leaf_value=-0.10375898026324197 -0.085577599711147229 -0.076296734809506009 0.10144976600551765 0.011840628212772399 0.029086464059698499 -0.041941815428939627 0.044435096445752525 0.13704118661446832 0.061435828011147491 0.080744169681517 0.1417603845573788 0.12289122116177938 0.05097175509605667 0.13949847414296768
leaf_weight=302.93442043662071 5.160080671310423 3.1306986659765261 4.2058615982532492 2.5671565532684317 2.881618931889534 2.8919874727725965 3.1667149960994712 341.71675759553909 5.2089453935623169 5.7529201358556747 4.6880185306072235 9.1135848015546781 2.9326452463865262 5.4823805689811707
leaf_count=1408 23 13 12 9 10 11 10 878 16 17 12 25 9 14
internal_value=0.0267304 -0.0905041 -0.100949 0.12945 0.0241014 0.133162 0.0650752 0.135452 0.00973108 0.0397019 0.0988675 0.10266 0.136359 0.108647
internal_weight=701.834 327.76 307.14 374.074 12.7297 361.344 20.6199 352.699 8.33964 8.64491 7.56964 12.2803 350.132 8.41503
internal_count=2467 1484 1420 983 45 938 64 910 29 28 22 35 901 23
is_linear=0
shrinkage=0.0712475


Tree=4
num_leaves=15
num_cat=0
split_feature=11 9 14 11 10 3 4 4 15 7 10 8 9 10
split_gain=1461.9 95.013 30.9828 24.8228 17.9679 13.8836 8.59099 7.20212 6.36234 5.0108 3.92232 2.83501 2.17836 1.69146
threshold=156.50000000000003 129.50000000000003 1.0000000180025095e-35 159.50000000000003 81.500000000000014 23.655367885970673 48.345602195899858 44.263189017990264 110.16666666666667 1.0000000180025095e-35 86.500000000000014 1.0000000180025095e-35 179.50000000000003 105.50000000000001
decision_type=10 10 2 10 2 2 2 2 10 2 2 2 10 2
left_child=1 2 -1 4 -2 -5 12 8 -3 -8 -6 -9 -7 -13
right_child=3 7 -4 5 10 6 9 11 -10 -11 -12 13 -14 -15
leaf_value=-0.10055480187276114 -0.082027165574999908 -0.072514554996909189 0.093990075750539692 -0.037069423392087575 0.026891149749363148 0.12808416736468328 0.10197127697698635 0.043740500837399166 0.056793764338401755 -0.0062335610638098241 0.13249686549271183 0.14157266198472818 0.067773517130201175 0.075527879283035518
leaf_weight=290.75872410833836 5.0055468380451185 3.0618390887975711 4.2157154828310004 2.6775676459074012 2.8943013548851013 344.16865409910679 5.2024220675230008 3.8007919490337345 5.2322819530963898 3.7301117032766342 4.6592231094837189 5.4505932927131653 3.0671444535255423 3.0812278538942337
leaf_count=1408 23 13 12 10 10 891 15 12 16 13 12 14 9 9
internal_value=0.0253095 -0.0874369 -0.0977744 0.121116 0.0226587 0.124562 0.125777 0.0603952 0.00905859 0.0567863 0.0920317 0.0949209 0.127551 0.117721
internal_weight=687.006 315.601 294.974 371.405 12.5591 358.846 356.168 20.6267 8.29412 8.93253 7.55352 12.3326 347.236 8.53182
internal_count=2467 1484 1420 983 45 938 928 64 29 28 22 35 900 23
is_linear=0
shrinkage=0.0712475


Tree=5
num_leaves=15
num_cat=0
split_feature=11 9 12 4 11 10 11 3 4 15 11 4 15 10
split_gain=1292.38 86.3689 28.4832 21.8805 11.9231 12.4176 9.3285 6.37925 6.20699 5.55039 4.39481 6.7248 2.57473 1.33074
threshold=156.50000000000003 129.50000000000003 16.350000000000005 48.345602195899858 159.50000000000003 81.500000000000014 165.50000000000003 25.050000000000004 44.263189017990264 107.83333333333336 175.50000000000003 61.500000000000007 124.16666666666667 93.500000000000014
decision_type=10 10 2 2 10 2 10 2 2 8 8 2 8 2
left_child=1 2 -1 4 5 -2 -5 -6 9 -3 -8 -12 -10 -7
right_child=3 8 -4 6 7 13 10 -9 12 -11 11 -13 -14 -15
leaf_value=-0.097457082968849237 -0.069463192871415655 -0.069014919388633411 0.1127090359161988 -0.082544518138304213 0.00827480807234722 0.060650432830508257 0.11493641501145312 0.12057581521565625 0.10762346544329503 0.052610959531188287 -0.075816901891524416 0.085083656478820296 0.033223768167503047 0.12512338812503276
leaf_weight=279.13696336746216 3.4115805029869062 2.9905252009630212 3.3122634738683692 3.2299527674913397 2.5871759355068198 2.8254788815975189 3.9559622108936283 340.78689585626125 9.1196366101503337 5.2452930957078943 2.3101552128791818 3.0719524621963501 3.1860900372266778 3.8251574337482452
leaf_count=1411 16 13 9 14 9 9 11 896 25 16 9 9 10 10
internal_value=0.0241044 -0.0847341 -0.0949925 0.114205 0.11749 0.041045 0.0218247 0.11973 0.0563205 0.00844713 0.0579251 0.0160205 0.0883606 0.0977325
internal_weight=668.995 302.991 282.449 366.004 353.436 10.0622 12.568 343.374 20.5415 8.23582 9.33807 5.38211 12.3057 6.65064
internal_count=2467 1484 1420 983 940 35 43 905 64 29 29 18 35 19
is_linear=0
shrinkage=0.0712475


Tree=6
num_leaves=15
num_cat=0
split_feature=11 9 14 4 11 10 11 3 4 15 12 11 4 8
split_gain=1148.89 78.7855 26.0436 19.738 10.6265 11.0578 8.13701 5.78234 5.37179 4.84982 4.02968 3.77462 5.81403 2.54589
threshold=156.50000000000003 129.50000000000003 1.0000000180025095e-35 48.345602195899858 159.50000000000003 82.500000000000014 165.50000000000003 25.050000000000004 44.263189017990264 107.83333333333336 15.250000000000002 175.50000000000003 61.500000000000007 1.0000000180025095e-35
decision_type=10 10 2 2 10 2 8 2 2 8 2 8 2 2
left_child=1 2 -1 4 5 10 -5 -6 9 -3 -2 -8 -13 -10
right_child=3 8 -4 6 7 -7 11 -9 13 -11 -12 12 -14 -15
leaf_value=-0.095296635002049684 -0.099087441620827693 -0.06575319471296294 0.084784494609351474 -0.07847455788821131 0.0076737031597667003 0.11142039688261283 0.10659346517564756 0.11452370892260119 0.034279910156164203 0.04881729716254074 0.03247472587848705 -0.071385819336726539 0.07864160003926883 0.10438160756983626
leaf_weight=265.62811030447483 2.6017809361219388 2.9179229289293298 4.1402000933885565 3.1580576151609394 2.5909250080585471 5.1260128021240234 3.9613132625818244 333.49250961840153 3.8240228295326206 5.2499325275421151 2.1654060482978821 2.279852271080018 3.086180105805397 8.4208750128746033
leaf_count=1408 13 13 12 14 9 14 11 896 12 16 8 9 9 23
internal_value=0.0230678 -0.0823208 -0.0925329 0.108382 0.111558 0.0387801 0.0203739 0.1137 0.0526385 0.00788759 -0.0393278 0.053842 0.0148998 0.0824892
internal_weight=648.643 290.181 269.768 358.462 345.977 9.8932 12.4854 336.083 20.4128 8.16786 4.76719 9.32735 5.36603 12.2449
internal_count=2467 1484 1420 983 940 35 43 905 64 29 21 29 18 35
is_linear=0
shrinkage=0.0712475


Tree=7
num_leaves=15
num_cat=0
split_feature=11 9 12 4 11 10 11 3 7 10 15 11 4 10
split_gain=1026.16 72.0938 23.8993 17.9526 9.55551 9.77891 7.12072 5.3024 4.92828 7.85533 7.80632 3.26939 5.04236 1.47615
threshold=156.50000000000003 129.50000000000003 16.350000000000005 48.345602195899858 159.50000000000003 81.500000000000014 165.50000000000003 25.050000000000004 1.0000000180025095e-35 82.500000000000014 105.50000000000001 175.50000000000003 61.500000000000007 78.500000000000014
decision_type=10 10 2 2 10 2 10 2 2 2 10 8 2 2
left_child=1 2 -1 4 5 -2 -5 -6 10 -10 -3 -8 -13 -9
right_child=3 8 -4 6 7 -7 11 13 9 -11 -12 12 -14 -15
leaf_value=-0.092799968510143216 -0.064513780324782069 -0.056286867063583518 0.1026311715255348 -0.074713935470873016 0.007117253209993327 0.087357527141677174 0.099445518401204636 0.092783833945233193 0.085193392532525558 -0.058600784847081103 0.10118179700275756 -0.067331724493907133 0.072954462817492474 0.11077186708396473
leaf_weight=253.84543305635452 3.2269805967807752 1.8842028528451944 3.2166555523872367 3.0834410190582267 2.5943298935890189 6.4616896659135818 3.9440483748912785 25.098619878292084 3.4598714560270301 4.3571477234363556 10.523630529642103 2.2461521476507196 3.0895488560199738 299.5156674683094
leaf_count=1411 16 8 9 14 9 19 11 71 11 16 29 9 9 825
internal_value=0.0221673 -0.0801644 -0.0903545 0.103411 0.106505 0.0367741 0.019089 0.10857 0.0493536 0.0050436 0.0772692 0.0502575 0.0138987 0.109381
internal_weight=626.547 277.287 257.062 349.26 336.897 9.68867 12.3632 327.209 20.2249 7.81702 12.4078 9.27975 5.3357 324.614
internal_count=2467 1484 1420 983 940 35 43 905 64 27 37 29 18 896
is_linear=0
shrinkage=0.0712475


Tree=8
num_leaves=15
num_cat=0
split_feature=11 9 14 4 11 10 11 3 4 15 4 7 11 10
split_gain=920.005 66.1872 22.1737 16.4394 8.74571 8.95358 6.24724 4.90982 4.64361 4.02983 3.77762 3.13962 2.4511 1.44641
threshold=156.50000000000003 129.50000000000003 1.0000000180025095e-35 48.345602195899858 159.50000000000003 82.500000000000014 165.50000000000003 25.050000000000004 44.263189017990264 110.16666666666667 43.955628423740414 1.0000000180025095e-35 136.50000000000003 78.500000000000014
decision_type=10 10 2 2 10 2 8 2 2 10 2 2 10 2
left_child=1 2 -1 4 5 10 -5 -6 9 -3 -2 -8 -10 -9
right_child=3 8 -4 6 7 -7 11 13 12 -11 -12 -13 -14 -15
leaf_value=-0.091180430182674382 0.032879431656420662 -0.063529752958029706 0.077557288668710617 -0.071213505936645966 0.0066019879496592541 0.10151300793870431 0.084351051088552675 0.088339759958242253 0.020221942022093754 0.041781497602360447 -0.096846692472360163 0.00062013469828875358 0.093599101866071108 0.10636589941566428
leaf_weight=240.45423533022404 2.1197726428508741 2.8556915819644946 4.0193105340003958 3.0073342025279972 2.5974258482456198 4.9242652654647827 5.1054080575704575 24.504765853285789 3.1280641555786124 5.208955779671669 2.4639460444450378 4.0978495329618454 8.8457684665918332 290.04186952114105
leaf_count=1408 8 13 12 14 9 14 15 71 10 16 13 14 25 825
internal_value=0.0213746 -0.0782027 -0.0884063 0.0991034 0.102137 0.0348075 0.0179373 0.104156 0.0462824 0.00449078 -0.0368539 0.047069 0.0744299 0.104962
internal_weight=603.375 264.512 244.474 338.863 326.652 9.50798 12.2106 317.144 20.0385 8.06465 4.58372 9.20326 11.9738 314.547
internal_count=2467 1484 1420 983 940 35 43 905 64 29 21 29 35 896
is_linear=0
shrinkage=0.0712475


Tree=9
num_leaves=15
num_cat=0
split_feature=11 9 14 4 11 10 11 3 7 10 15 4 8 7
split_gain=827.549 60.9148 20.2749 15.2662 7.99803 7.95956 5.46975 4.58323 4.36887 7.01977 6.48205 4.11663 2.76738 1.97351
threshold=156.50000000000003 129.50000000000003 1.0000000180025095e-35 48.345602195899858 159.50000000000003 82.500000000000014 165.50000000000003 25.050000000000004 1.0000000180025095e-35 82.500000000000014 105.50000000000001 41.970218346313956 1.0000000180025095e-35 1.0000000180025095e-35
decision_type=10 10 2 2 10 2 8 2 2 2 10 2 2 2
left_child=1 2 -1 4 5 11 -5 -6 10 -10 -3 -2 13 -8
right_child=3 8 -4 6 7 -7 12 -9 9 -11 -12 -13 -14 -15
leaf_value=-0.089443694711313346 0.043109920098739249 -0.053516886376166535 0.072920508057938899 -0.067934136413437277 0.0061247106509144146 0.096991437868084618 0.058807050228647947 0.10111956580092397 0.078124906079427944 -0.058341370828228552 0.092411600081550138 -0.094714455947655748 0.093806530414254324 -0.025461474959756678
leaf_weight=228.10714772343636 1.938677653670309 1.8201974630355859 3.9720406234264365 2.9307357221841785 2.6002439409494391 4.7914658784866333 2.6066658794879913 303.63351139426231 3.4219429641962043 4.3404392749071121 10.225533708930014 2.5432346910238266 3.4902905970811844 3.0748912692070007
leaf_count=1408 7 8 12 14 9 14 8 896 11 16 29 14 10 11
internal_value=0.0206705 -0.0764288 -0.0866648 0.0953267 0.098339 0.0331515 0.0167992 0.100313 0.0435003 0.00181797 0.0703607 -0.0350977 0.0438746 0.0132004
internal_weight=579.497 251.887 232.079 327.61 315.507 9.27338 12.1026 306.234 19.8081 7.76238 12.0457 4.48191 9.17185 5.68156
internal_count=2467 1484 1420 983 940 35 43 905 64 27 37 21 29 19
is_linear=0
shrinkage=0.0712475


Tree=10
num_leaves=15
num_cat=0
split_feature=11 9 12 4 11 10 11 3 4 4 7 11 4 15
split_gain=746.45 56.2121 18.9982 14.2447 7.34396 7.09927 4.7975 4.30706 4.06116 3.73038 3.41895 2.5018 4.61774 2.49734
threshold=156.50000000000003 129.50000000000003 16.350000000000005 48.345602195899858 159.50000000000003 82.500000000000014 165.50000000000003 25.050000000000004 44.263189017990264 41.970218346313956 1.0000000180025095e-35 175.50000000000003 61.500000000000007 124.16666666666667
decision_type=10 10 2 2 10 2 8 2 2 2 2 8 2 8
left_child=1 2 -1 4 5 9 -5 -6 10 -2 -3 -8 -13 -10
right_child=3 8 -4 6 7 -7 11 -9 13 -11 -12 12 -14 -15
leaf_value=-0.087565580433041981 0.03976846830284269 0.04065314587602991 0.092559511727084098 -0.064844475882502334 0.0056825137878568788 0.092955580574895627 0.084995982881714477 0.097741156610002419 0.087497902021230381 -0.092633931992504207 -0.054473408823359708 -0.068441641893731198 0.066154410422369428 0.012558554132290357
leaf_weight=216.95041245222092 1.9513414651155452 4.6739355176687267 3.0136685669422141 2.8544496446847889 2.6028119772672644 4.6485187411308289 3.8152760714292517 292.16507747769356 8.5658618360757792 2.4195799678564072 3.2525782287120819 2.2388184815645227 3.0657217651605606 3.0650679171085367
leaf_count=1411 7 16 9 14 9 14 11 896 25 14 13 9 9 10
internal_value=0.0200403 -0.0748059 -0.0850977 0.0919861 0.0949905 0.0316619 0.0157647 0.0969283 0.040947 -0.0335246 0.00161876 0.0409949 0.00934719 0.0677493
internal_weight=555.283 239.522 219.964 315.762 303.787 9.01944 11.9743 294.768 19.5574 4.37092 7.92651 9.11982 5.30454 11.6309
internal_count=2467 1484 1420 983 940 35 43 905 64 21 29 29 18 35
is_linear=0
shrinkage=0.0712475


Tree=11
num_leaves=15
num_cat=0
split_feature=11 9 14 4 11 10 11 3 3 3 12 7 8 10
split_gain=674.899 52.0274 17.5209 13.279 6.77673 6.34846 4.22484 4.07092 3.88255 4.1382 3.49247 2.5586 2.48201 1.68448
threshold=156.50000000000003 129.50000000000003 1.0000000180025095e-35 48.345602195899858 159.50000000000003 82.500000000000014 165.50000000000003 25.050000000000004 25.150000000000002 28.850000000000005 15.250000000000002 1.0000000180025095e-35 1.0000000180025095e-35 78.500000000000014
decision_type=10 10 2 2 10 2 8 2 2 2 2 2 2 2
left_child=1 2 -1 4 5 10 -5 -6 -3 -10 -2 -11 -8 -9
right_child=3 8 -4 6 7 -7 12 13 9 11 -12 -13 -14 -15
leaf_value=-0.086499515094127344 -0.093566961480286925 -0.029812599761947861 0.067564683982453924 -0.06191921454139384 0.0052727221118189773 0.08931431616054307 0.0094359714964850124 0.075918755685369627 0.09649968310475518 0.052726423273681267 0.035608165179253769 -0.023911610685387049 0.086588792359048927 0.096368728767309397
leaf_weight=204.38229165971279 2.230943635106085 3.4702845066785839 3.8170524686574927 2.7791189253330204 2.6051544249057761 4.4988163411617279 5.6050495356321335 22.205294847488403 6.6007303893566123 5.6446118950843793 2.028523251414299 3.6356132030487061 3.4008442908525467 258.14336171746254
leaf_count=1408 13 13 12 14 9 14 19 71 20 18 8 13 10 825
internal_value=0.0194713 -0.0732886 -0.083675 0.0890192 0.0920146 0.0302911 0.0148734 0.0939252 0.0384573 0.0533756 -0.0320488 0.0227028 0.0385708 0.094749
internal_weight=531.048 227.551 208.199 303.497 291.712 8.75828 11.785 282.954 19.3512 15.881 4.25947 9.28023 9.00589 280.349
internal_count=2467 1484 1420 983 940 35 43 905 64 51 21 31 29 896
is_linear=0
shrinkage=0.0712475


Tree=12
num_leaves=15
num_cat=0
split_feature=11 9 12 4 11 5 10 3 11 4 15 7 15 10
split_gain=611.329 48.3128 16.3343 12.5348 6.29927 5.86465 10.4644 3.86718 3.70749 3.67517 3.30692 2.33636 2.22423 1.6982
threshold=156.50000000000003 129.50000000000003 16.350000000000005 48.345602195899858 159.50000000000003 1.0000000180025095e-35 93.500000000000014 25.050000000000004 165.50000000000003 44.263189017990264 110.16666666666667 1.0000000180025095e-35 124.16666666666667 78.500000000000014
decision_type=10 10 2 2 10 2 2 2 8 2 10 2 8 2
left_child=1 2 -1 4 5 6 -2 -6 -5 10 -3 -10 -11 -9
right_child=3 9 -4 8 7 -7 -8 13 11 12 -12 -13 -14 -15
leaf_value=-0.084881580787733668 -0.095763252779238764 -0.063079933949823627 0.086736577993571595 -0.059137884230164119 0.004892882374499443 0.11434952404605989 0.098357807657283844 0.072882903212296096 0.069162950292476849 0.08117979368485273 0.033191504739872882 -0.0039356955389373578 0.0098435967480180915 0.093756940200601047
leaf_weight=193.94733873009682 3.2675070613622648 2.8233816921710995 2.8566932678222647 2.7052512615919087 2.6072932034730902 2.7595306038856506 2.4791969656944275 21.507956176996231 4.8976482152938843 8.2809791266918147 5.0522277057170868 4.058977872133255 3.0307232588529596 246.84135925769806
leaf_count=1411 19 13 9 14 9 8 8 71 15 25 16 14 10 825
internal_value=0.0189495 -0.0718691 -0.0823905 0.0863296 0.0893496 0.0289778 -0.0120171 0.0912449 0.0139581 0.0360485 -0.00132151 0.036036 0.0620668 0.0920839
internal_weight=507.116 215.991 196.804 291.125 279.463 8.50623 5.7467 270.957 11.6619 19.1873 7.87561 8.95663 11.3117 268.349
internal_count=2467 1484 1420 983 940 35 27 905 43 64 29 29 35 896
is_linear=0
shrinkage=0.0712475


Tree=13
num_leaves=15
num_cat=0
split_feature=11 9 14 4 11 5 10 3 7 10 15 11 4 10
split_gain=554.939 44.8748 15.2765 11.8791 5.7245 5.24037 9.50985 3.68908 3.39612 6.01893 5.77067 3.25648 2.27567 1.7238
threshold=156.50000000000003 129.50000000000003 1.0000000180025095e-35 48.345602195899858 159.50000000000003 1.0000000180025095e-35 93.500000000000014 25.050000000000004 1.0000000180025095e-35 82.500000000000014 109.16666666666667 165.50000000000003 57.783112531623701 78.500000000000014
decision_type=10 10 2 2 10 2 2 2 2 2 10 8 2 2
left_child=1 2 -1 4 5 6 -2 -6 10 -10 -3 -5 -13 -9
right_child=3 8 -4 11 7 -7 -8 13 9 -11 -12 12 -14 -15
leaf_value=-0.084106127202688979 -0.09371656751265256 -0.039778293348341341 0.063072148141984419 -0.056483872381779529 0.0045407396398022938 0.11006094880884502 0.095839030662703523 0.070033996769322121 0.069562751877939422 -0.058544525238006767 0.084944060290796389 -0.012489199065412961 0.06182210618361738 0.09142479360329285
leaf_weight=182.18192261457443 3.1068222820758802 2.3852532953023937 3.6517005115747443 2.6332421600818607 2.6092480123043051 2.6661732196807861 2.3671478033065796 20.813755303621292 3.2900992631912223 4.2881696373224258 8.9451649785041791 3.3643610179424286 5.5308597385883331 235.51476314663887
leaf_count=1408 19 10 12 14 9 8 8 71 11 16 27 12 17 825
internal_value=0.0184798 -0.0705742 -0.081214 0.0839239 0.0869804 0.0281501 -0.0117457 0.0888299 0.0339937 -0.00292685 0.0586878 0.0131132 0.033716 0.0896879
internal_weight=483.349 204.742 185.834 278.606 267.078 8.14014 5.47397 258.938 18.9087 7.57827 11.3304 11.5285 8.89522 256.329
internal_count=2467 1484 1420 983 940 35 27 905 64 27 37 43 29 896
is_linear=0
shrinkage=0.0712475


Tree=14
num_leaves=15
num_cat=0
split_feature=11 9 12 4 11 5 10 3 4 9 15 15 4 8
split_gain=504.54 41.7686 14.1374 11.3005 5.20466 4.70169 8.66079 3.53177 3.25539 3.03067 3.41123 2.76266 2.75081 2.23205
threshold=156.50000000000003 129.50000000000003 16.350000000000005 48.345602195899858 159.50000000000003 1.0000000180025095e-35 93.500000000000014 25.050000000000004 44.263189017990264 157.50000000000003 111.16666666666667 110.16666666666667 57.783112531623701 1.0000000180025095e-35
decision_type=10 10 2 2 10 2 2 2 2 10 8 10 2 2
left_child=1 2 -1 4 5 6 -2 -6 11 10 -5 -3 -12 -10
right_child=3 8 -4 9 7 -7 -8 -9 13 -11 12 -13 -14 -15
leaf_value=-0.082673828260511631 -0.091875774810467506 -0.060544352251974402 0.081832408392371062 0.039724239577414305 0.0042142254428057498 0.10633185189370691 0.093609461917270362 0.087518456371315265 0.01165997673003817 0.061869079779700478 -0.10997856011294799 0.028497955657720831 0.0073330302046498205 0.079980227945558521
leaf_weight=172.59203884005547 2.9490160495042792 2.7540034353733089 2.6931996792554846 3.2421741485595685 2.611036241054534 2.5666727721691132 2.254936158657074 244.40381483733654 3.6455281078815442 4.0430489629507065 2.2904281169176102 4.944280207157135 1.8216318339109419 7.2646823525428772
leaf_count=1411 19 13 9 11 9 8 8 896 12 13 12 16 7 23
internal_value=0.0180482 -0.0693718 -0.0801462 0.0817269 0.0848318 0.0274186 -0.0115027 0.0866379 0.0321198 0.0123181 -0.014923 -0.00335626 -0.0580098 0.0571518
internal_weight=460.076 193.894 175.285 266.183 254.785 7.77062 5.20395 247.015 18.6085 11.3973 7.35423 7.69828 4.11206 10.9102
internal_count=2467 1484 1420 983 940 35 27 905 64 43 30 29 19 35
is_linear=0
shrinkage=0.0712475


Tree=15
num_leaves=15
num_cat=0
split_feature=11 9 14 4 11 5 10 3 3 3 11 7 4 3
split_gain=459.237 38.9357 13.4282 10.8103 4.73212 4.23334 7.90253 3.39073 3.2336 3.71924 2.70839 2.31332 2.23725 3.22642
threshold=156.50000000000003 129.50000000000003 1.0000000180025095e-35 48.345602195899858 159.50000000000003 1.0000000180025095e-35 93.500000000000014 25.050000000000004 25.150000000000002 28.850000000000005 165.50000000000003 1.0000000180025095e-35 51.897268733446225 37.250000000000007
decision_type=10 10 2 2 10 2 2 2 2 2 10 2 2 2
left_child=1 2 -1 4 5 6 -2 -6 -3 -10 -5 -12 13 -11
right_child=3 8 -4 10 7 -7 -8 -9 9 12 11 -13 -14 -15
leaf_value=-0.082140860448561601 -0.090214124826786188 -0.033067030440017707 0.059245970880729956 -0.053686476503875133 0.0039114279640530599 0.10306422877820177 0.091626486567755683 0.085531738551794023 0.087708881304518066 -0.052814988267554923 0.064089386945627463 -0.0093018307873685858 0.066148012179320939 0.053650827681170112
leaf_weight=161.71330646425486 2.7949505150318137 3.3385487347841289 3.4833365976810446 2.5129806697368613 2.6126735210418692 2.4631468653678894 2.1436455249786377 232.68984568119049 6.0318356305360785 3.5657841265201551 4.7224035114049894 4.0497853606939316 2.9463186264038086 2.4292901754379272
leaf_count=1408 19 13 12 14 9 8 8 896 20 14 15 14 9 8
internal_value=0.0176445 -0.0682331 -0.0791596 0.0796915 0.082861 0.0267684 -0.0112844 0.0846255 0.0303384 0.0444757 0.011526 0.0302075 0.0153108 -0.00967351
internal_weight=437.498 183.508 165.197 253.989 242.704 7.40174 4.9386 235.303 18.3118 14.9732 11.2852 8.77219 8.94139 5.99507
internal_count=2467 1484 1420 983 940 35 27 905 64 51 43 29 31 22
is_linear=0
shrinkage=0.0712475


Tree=16
num_leaves=15
num_cat=0
split_feature=11 9 14 4 11 5 10 3 7 10 15 9 8 15
split_gain=418.454 36.4197 12.4354 10.3333 4.30316 3.82342 7.22292 3.2637 2.87271 5.35393 4.73893 2.69294 3.09053 3.12352
threshold=156.50000000000003 129.50000000000003 1.0000000180025095e-35 48.345602195899858 159.50000000000003 1.0000000180025095e-35 93.500000000000014 25.050000000000004 1.0000000180025095e-35 93.500000000000014 109.16666666666667 157.50000000000003 1.0000000180025095e-35 107.16666666666667
decision_type=10 10 2 2 10 2 2 2 2 2 10 10 2 8
left_child=1 2 -1 4 5 6 -2 -6 10 -10 -3 12 13 -5
right_child=3 8 -4 11 7 -7 -8 -9 9 -11 -12 -13 -14 -15
leaf_value=-0.08128279182167851 -0.088709317956972109 -0.037823226359916702 0.056008431582417473 0.015721105327711295 0.0036305842922883676 0.10018193548251168 0.08985540821213478 0.083707671954358437 0.03859251514311117 -0.088435182483622463 0.077385288755414769 0.057718759861033496 0.038383789168932259 -0.11036058293142624
leaf_weight=152.12445445358753 2.6452854722738257 2.3166200965642956 3.424368977546691 1.7507094591855983 2.6141738742589942 2.3573207259178162 2.0341352820396423 221.23763121664524 4.8635620772838584 2.5765650421380997 8.3266424089670164 3.9925336241722107 3.0921698212623596 2.3181063681840897
leaf_count=1408 19 10 12 6 9 8 8 896 17 10 27 13 11 13
internal_value=0.0172663 -0.0671346 -0.0782604 0.0778124 0.081048 0.0261879 -0.0110876 0.0827725 0.0285663 -0.00539802 0.0523089 0.0108332 -0.0153073 -0.0561108
internal_weight=415.674 173.632 155.549 242.042 230.889 7.03674 4.67942 223.852 18.0834 7.44013 10.6433 11.1535 7.16099 4.06882
internal_count=2467 1484 1420 983 940 35 27 905 64 27 37 43 30 19
is_linear=0
shrinkage=0.0712475


Tree=17
num_leaves=15
num_cat=0
split_feature=11 9 12 4 2 3 10 0 4 11 9 9 15 15
split_gain=381.695 34.0684 11.6918 9.91283 4.20875 7.26001 5.07011 18.9153 2.80966 2.53301 5.60228 2.33776 2.74603 2.30833
threshold=156.50000000000003 129.50000000000003 16.350000000000005 48.345602195899858 1.5000000000000002 24.059513253512183 78.500000000000014 33.500000000000007 44.263189017990264 159.50000000000003 140.50000000000003 157.50000000000003 115.83333333333336 110.16666666666667
decision_type=10 10 2 2 2 2 2 2 2 10 10 10 8 10
left_child=1 2 -1 4 5 -2 7 -7 13 10 -8 12 -5 -3
right_child=3 8 -4 11 -6 6 9 -9 -10 -11 -12 -13 -14 -15
leaf_value=-0.080061626121002039 -0.080605583480327564 -0.059003353894697116 0.076712261553588054 0.019525318396577632 0.087315686962015721 0.073481830886445984 -0.09045986854663865 -0.1536523721546891 0.051165982132133178 0.0797167938766499 0.093746754063628757 0.053828243383202044 -0.072601602537445575 0.023474550705081695
leaf_weight=143.90039474517107 1.6564490348100651 2.6913799941539791 2.4559666067361823 4.448675259947775 133.08986331522465 8.7454499006271345 1.4341271817684167 2.3643412142992011 10.297200620174406 70.089927867054939 2.0165611654520035 3.9766567349433899 2.6035561412572861 4.7848956435918808
leaf_count=1411 7 13 9 16 564 35 10 15 35 301 8 13 14 16
internal_value=0.016913 -0.066119 -0.0774308 0.0760558 0.0793691 0.067115 0.0700056 0.025144 0.0270284 0.0767829 0.0171893 0.0101457 -0.0144863 -0.00621662
internal_weight=394.555 164.13 146.356 230.426 219.397 86.3069 84.6504 11.1098 17.7735 73.5406 3.45069 11.0289 7.05223 7.47628
internal_count=2467 1484 1420 983 940 376 369 50 64 319 18 43 30 29
is_linear=0
shrinkage=0.0712475


Tree=18
num_leaves=15
num_cat=0
split_feature=11 9 14 4 2 3 10 9 3 3 13 6 11 7
split_gain=348.552 31.9328 11.0462 9.57106 4.07571 6.5692 4.75674 17.7009 2.75189 3.39876 2.44969 12.254 2.17668 2.13842
threshold=156.50000000000003 129.50000000000003 1.0000000180025095e-35 48.345602195899858 1.5000000000000002 24.059513253512183 78.500000000000014 128.50000000000003 25.150000000000002 28.850000000000005 1.0000000180025095e-35 1.0000000180025095e-35 165.50000000000003 1.0000000180025095e-35
decision_type=10 10 2 2 2 2 2 8 2 2 2 2 10 2
left_child=1 2 -1 4 5 -2 7 -7 -3 -10 -8 -12 -5 -14
right_child=3 8 -4 12 -6 6 10 -9 9 -11 11 -13 13 -15
leaf_value=-0.079798275818517131 -0.075536347844366955 -0.03352823970338125 0.052902267617184105 -0.051185496818082828 0.085926818450050582 0.072075201161728053 0.082090869647781284 -0.15074309468756275 0.082114273222202869 0.010922742039815721 0.077885278752811399 -0.098661811015755954 0.059728768803935427 -0.01151352826475161
leaf_weight=134.36649168282747 1.6421940475702275 3.264392793178561 3.2615274190902701 2.3550376892089835 125.86760523915291 8.4331291764974559 55.131226480007172 2.3043382838368425 5.6200236380100241 8.6335138082504255 12.369034007191656 2.3796465694904319 4.5361848324537259 4.0466641634702682
leaf_count=1408 7 13 12 14 564 35 249 15 20 31 55 15 15 14
internal_value=0.0165859 -0.0651215 -0.0766535 0.0744527 0.0778667 0.0655336 0.0684072 0.0242568 0.0254788 0.0389928 0.0751912 0.0494 0.00949046 0.0261393
internal_weight=374.211 155.146 137.628 219.065 208.127 82.2596 80.6174 10.7375 17.5179 14.2535 69.8799 14.7487 10.9379 8.58285
internal_count=2467 1484 1420 983 940 376 369 50 64 51 319 70 43 29
is_linear=0
shrinkage=0.0712475


Tree=19
num_leaves=15
num_cat=0
split_feature=11 9 14 4 2 3 10 8 3 7 10 15 13 6
split_gain=318.554 30.0563 10.2752 9.2175 3.94479 5.9574 4.48213 16.1165 2.95754 2.55885 4.73031 4.00788 2.34044 11.02
threshold=156.50000000000003 129.50000000000003 1.0000000180025095e-35 48.345602195899858 1.5000000000000002 24.059513253512183 78.500000000000014 1.0000000180025095e-35 31.350000000000005 1.0000000180025095e-35 82.500000000000014 109.16666666666667 1.0000000180025095e-35 1.0000000180025095e-35
decision_type=10 10 2 2 2 2 2 2 2 2 2 10 2 2
left_child=1 2 -1 4 5 -2 7 -7 -9 11 -11 -3 -8 -14
right_child=3 9 -4 -5 -6 6 12 8 -10 10 -12 -13 13 -15
leaf_value=-0.079143542262183481 -0.070897153361094797 -0.036040474852523957 0.050009986483490497 0.0089212814206912489 0.084666532679620377 -0.17187376638491514 0.080711884315405991 0.087318988407150536 -0.010323125882732586 0.058574585291951871 -0.057360039547229735 0.071573329708332273 0.07611357960710935 -0.092957329286527446
leaf_weight=126.1238658875227 1.6256039738655079 2.2697193026542681 3.2064074277877799 10.810900107026098 118.89300002157688 1.7779914736747713 52.185201823711395 6.5266347378492355 2.0754351764917374 3.104062393307685 4.2088161408901215 7.7736627757549286 11.776820138096808 2.3469705060124388
leaf_count=1408 7 10 12 43 564 13 249 28 9 11 16 27 55 15
internal_value=0.0162782 -0.0641269 -0.0759415 0.0729767 0.0764882 0.0640724 0.0669334 0.0233991 0.0637607 0.0239099 -0.00814982 0.0472535 0.0737483 0.0480188
internal_weight=354.705 146.687 129.33 208.019 197.208 78.3147 76.6891 10.3801 8.60207 17.3563 7.31288 10.0434 66.309 14.1238
internal_count=2467 1484 1420 983 940 376 369 50 37 64 27 37 319 70
is_linear=0
shrinkage=0.0712475


Tree=20
num_leaves=15
num_cat=0
split_feature=11 9 12 4 2 3 10 0 4 15 13 6 7 9
split_gain=291.321 28.2384 9.80435 9.01625 3.82198 5.41247 4.20732 14.4328 2.54265 2.29841 2.24292 9.91541 2.11642 2.09543
threshold=156.50000000000003 129.50000000000003 16.350000000000005 48.345602195899858 1.5000000000000002 24.059513253512183 78.500000000000014 33.500000000000007 44.263189017990264 124.16666666666667 1.0000000180025095e-35 1.0000000180025095e-35 1.0000000180025095e-35 157.50000000000003
decision_type=10 10 2 2 2 2 2 2 2 8 2 2 2 10
left_child=1 2 -1 4 5 -2 7 -7 12 -10 -8 -12 -3 -5
right_child=3 8 -4 13 -6 6 10 -9 9 -11 11 -13 -14 -15
leaf_value=-0.078047874558274111 -0.066622530671421945 0.024126955960399269 0.0726493770605596 -0.015349938120762107 0.083519039509266021 0.06876181738469965 0.079425566091654631 -0.13612157640646658 0.067641797332406189 -0.0096913902266173683 0.074412547191176015 -0.087493842011271056 -0.053547169994522269 0.049915923188578702
leaf_weight=119.23534424602985 1.607330948114394 4.1399787515401867 2.2325637042522422 6.8952284529805166 112.1826863437891 7.7531505674123746 49.354963973164558 2.2523583546280861 7.0897173285484287 2.6915396451950082 11.208557829260824 2.3170068860054007 3.1246646493673325 3.9149232059717178
leaf_count=1411 7 16 9 30 564 35 249 15 25 10 55 15 13 13
internal_value=0.015988 -0.0632271 -0.0752781 0.0715482 0.0752116 0.0627012 0.0655531 0.0226401 0.0226474 0.0463618 0.0723814 0.046677 -0.0092822 0.00828626
internal_weight=336 138.514 121.468 197.486 186.676 74.4934 72.886 10.0055 17.0459 9.78126 62.8805 13.5256 7.26464 10.8102
internal_count=2467 1484 1420 983 940 376 369 50 64 35 319 70 29 43
is_linear=0
shrinkage=0.0712475


Tree=21
num_leaves=15
num_cat=0
split_feature=11 9 2 4 2 3 10 8 3 9 7 15 13 6
split_gain=266.468 26.606 9.25129 8.79556 3.72568 4.92164 3.976 13.5909 2.61018 2.40785 2.64223 4.34145 2.15541 8.92586
threshold=156.50000000000003 129.50000000000003 1.5000000000000002 48.345602195899858 1.5000000000000002 24.059513253512183 78.500000000000014 1.0000000180025095e-35 31.350000000000005 179.50000000000003 1.0000000180025095e-35 109.16666666666667 1.0000000180025095e-35 1.0000000180025095e-35
decision_type=10 10 2 2 2 2 2 2 2 10 2 10 2 2
left_child=1 2 -1 4 5 -2 7 -7 -9 10 11 -3 -8 -14
right_child=3 9 -4 -5 -6 6 12 8 -10 -11 -12 -13 13 -15
leaf_value=-0.077729084447348357 -0.062661306148959095 -0.032649873376431729 0.058941805734787953 0.0077182283072476732 0.082470836381025328 -0.16140266603430159 0.078218820261046637 0.085009695284062492 -0.0076962824796276931 -0.047318278710249954 -0.0050787768399186469 0.08505798681679877 0.072769825673920971 -0.08227436207252771
leaf_weight=111.46893933415413 1.587905429303645 2.0933499932289141 2.5721542090177527 10.783413946628569 105.74753025919199 1.6947797872126082 46.644261680543423 5.8919191509485245 2.0880335122346878 2.2469433099031439 5.859933301806449 6.6230383515357971 10.664854913949965 2.2894904091954222
leaf_count=1410 7 9 10 43 564 13 249 28 9 9 22 24 55 15
internal_value=0.0157055 -0.0623077 -0.0746465 0.0701857 0.0739998 0.0613584 0.0642012 0.0218361 0.0607523 0.0213343 0.0319171 0.056789 0.0710784 0.045368
internal_weight=318.257 130.864 114.041 187.392 176.609 70.8612 69.2733 9.67473 7.97995 16.8233 14.5763 8.71639 59.5986 12.9543
internal_count=2467 1484 1420 983 940 376 369 50 37 64 55 33 319 70
is_linear=0
shrinkage=0.0712475


Tree=22
num_leaves=15
num_cat=0
split_feature=11 9 12 4 2 3 10 9 12 3 4 13 6 11
split_gain=243.852 25.0747 8.71597 8.61237 3.63106 4.4827 3.73627 12.5067 2.30112 2.7327 3.89137 2.07643 8.03885 1.90958
threshold=156.50000000000003 129.50000000000003 16.350000000000005 48.345602195899858 1.5000000000000002 24.059513253512183 78.500000000000014 128.50000000000003 16.650000000000002 36.600000000000009 46.011424935268757 1.0000000180025095e-35 1.0000000180025095e-35 165.50000000000003
decision_type=10 10 2 2 2 2 2 8 2 2 2 2 2 8
left_child=1 2 -1 4 5 -2 7 -7 9 10 -3 -8 -13 -5
right_child=3 8 -4 13 -6 6 11 -9 -10 -11 -12 12 -14 -15
leaf_value=-0.076918802967966646 -0.058973028633747503 -0.0052618174955749277 0.069851279380582332 -0.050260152326237754 0.08151030865490963 0.066413658472639997 0.077080230540434891 -0.12929141876579683 -0.040569213543221412 -0.031257953281949143 0.081274491937336338 0.07117479365223553 -0.077301222132588165 0.022823444197820883
leaf_weight=104.94027685374022 1.5677574649453152 4.3140803873538989 2.0949023514986029 2.3095255643129322 99.593697249889374 7.165527164936063 44.054992288351059 2.1564371213316926 2.6554811894893637 2.7870877534151068 6.7887922674417496 10.145962953567503 2.2641334459185591 8.4727116525173187
leaf_count=1411 7 18 9 14 564 35 249 15 11 11 24 55 15 29
internal_value=0.0154371 -0.0614283 -0.0740462 0.0688835 0.0728693 0.0600924 0.0629298 0.0211415 0.0201993 0.031817 0.0476503 0.0698287 0.0440864 0.00716913
internal_weight=301.311 123.581 107.035 177.731 166.949 67.3548 65.7871 9.32196 16.5454 13.89 11.1029 56.4651 12.4101 10.7822
internal_count=2467 1484 1420 983 940 376 369 50 64 53 42 319 70 43
is_linear=0
shrinkage=0.0712475


Tree=23
num_leaves=15
num_cat=0
split_feature=11 9 14 4 2 3 10 8 3 3 3 13 6 6
split_gain=223.235 23.6844 8.42422 8.35559 3.56004 4.08484 3.53648 11.1818 2.48819 2.25015 2.8767 2.00469 7.2432 1.90249
threshold=156.50000000000003 129.50000000000003 1.0000000180025095e-35 48.345602195899858 1.5000000000000002 24.059513253512183 78.500000000000014 1.0000000180025095e-35 31.350000000000005 25.150000000000002 28.850000000000005 1.0000000180025095e-35 1.0000000180025095e-35 1.0000000180025095e-35
decision_type=10 10 2 2 2 2 2 2 2 2 2 2 2 2
left_child=1 2 -1 4 5 -2 7 -7 -9 -3 -11 -8 -13 -12
right_child=3 9 -4 -5 -6 6 11 8 -10 10 13 12 -14 -15
leaf_value=-0.077051274061017513 -0.055525415446470681 -0.035597678047790723 0.045953420969483835 0.006705487736389194 0.080627424947689472 -0.14828076464191944 0.075999765532134306 0.083369914176760762 -0.0089683058307205819 0.074735395615723274 0.058725063920744038 0.069618302589075379 -0.072574869982840642 -0.01612771124319427
leaf_weight=97.500466667115688 1.5472337305545796 3.0970358252525356 2.9107241481542578 10.69488190859556 93.723476223647594 1.6336812190711478 41.587545797228813 5.3310506641864777 2.0513786226511002 4.9637013226747504 2.4517161846160871 9.6518447324633581 2.2406558617949477 5.804136261343956
leaf_count=1408 7 13 12 43 564 13 249 28 9 20 9 55 15 22
internal_value=0.0151779 -0.0605485 -0.0734856 0.067649 0.0717803 0.0588331 0.0616643 0.0203866 0.0577116 0.0190657 0.031872 0.0686232 0.0428278 0.0061011
internal_weight=285.19 116.728 100.411 168.462 157.767 64.0434 62.4962 9.01611 7.38243 16.3166 13.2196 53.48 11.8925 8.25585
internal_count=2467 1484 1420 983 940 376 369 50 37 64 51 319 70 31
is_linear=0
shrinkage=0.0712475


Tree=24
num_leaves=15
num_cat=0
split_feature=11 9 4 14 2 10 9 13 6 11 10 9 0 9
split_gain=204.346 22.4406 8.18419 7.88119 3.48627 3.70761 11.0203 2.66209 6.04787 3.90565 2.19261 2.0255 2.44071 2.56122
threshold=156.50000000000003 129.50000000000003 48.345602195899858 1.0000000180025095e-35 1.5000000000000002 78.500000000000014 128.50000000000003 1.0000000180025095e-35 1.0000000180025095e-35 157.50000000000003 94.500000000000014 179.50000000000003 41.500000000000007 166.50000000000003
decision_type=10 10 2 2 2 2 8 2 2 10 2 10 2 10
left_child=1 3 4 -1 5 6 -2 -7 10 -10 -9 12 13 -3
right_child=2 11 -4 -5 -6 7 -8 8 9 -11 -12 -13 -14 -15
leaf_value=-0.076622370779410101 0.063484321031158114 -0.0069903451166120319 0.0062287024025973635 0.043386562596607926 0.079813455868267297 0.074021525296898386 -0.11378262070817419 0.080743976986853983 0.04233738892255981 -0.12218415284309443 -0.0076542641189547359 -0.0454074524106702 0.094439515084142028 0.066459129863065958
leaf_weight=91.285336941480637 6.5720012784004185 8.2013471722602862 10.693287543952463 2.8650009781122199 88.136058777570724 39.45206493884325 2.4416131153702745 7.6426077932119352 1.2772785723209374 1.7172121107578275 1.750588536262512 2.2137385308742514 2.3337950557470313 3.412807196378707
leaf_count=1408 35 33 43 12 564 250 17 47 8 10 9 9 10 12
internal_value=0.0149184 -0.0596565 0.0664362 -0.0729705 0.0707574 0.0576412 0.0154661 0.0649744 0.0361614 -0.0520087 0.0642694 0.0179043 0.0279528 0.0145927
internal_weight=269.995 110.312 159.683 94.1503 148.989 60.8534 9.01361 51.8398 12.3877 2.99449 9.3932 16.1617 13.9479 11.6142
internal_count=2467 1484 983 1420 940 376 52 324 74 18 56 64 55 45
is_linear=0
shrinkage=0.0712475


Tree=25
num_leaves=15
num_cat=0
split_feature=11 9 4 12 4 2 10 9 13 0 15 3 3 9
split_gain=187.005 21.2816 8.00472 7.46054 3.69769 3.4505 3.47147 9.75805 2.57173 5.55769 2.54859 1.95106 2.67255 1.83273
threshold=156.50000000000003 129.50000000000003 48.345602195899858 16.850000000000005 32.500000000000007 1.5000000000000002 78.500000000000014 128.50000000000003 1.0000000180025095e-35 38.500000000000007 115.50000000000001 25.150000000000002 28.850000000000005 157.50000000000003
decision_type=10 10 2 2 2 2 2 8 2 2 10 2 2 10
left_child=1 3 5 4 -1 6 7 -2 -8 10 -10 -3 -13 -4
right_child=2 11 13 -5 -6 -7 8 -9 9 -11 -12 12 -14 -15
leaf_value=0.14318822113413182 0.061716308394248888 -0.034282365275981233 -0.01638153205880355 0.085174183961387331 -0.076193997979516093 0.079060727513148008 0.072951528179289765 -0.10662875205347522 0.073175888916613988 -0.077256630115699637 -0.018965532641059782 0.071432216838188359 0.0042547537403500903 0.045039146179059637
leaf_weight=0.39177021384239097 6.28902795910835 3.063936471939086 6.8329459428787214 1.4978080540895451 86.364269133657217 82.828164547681808 37.258438311517239 2.420557279139758 8.1803512685000879 1.8865545131266106 1.8726288527250279 4.7537275254726401 8.177671477198599 3.8587391823530197
leaf_count=1 35 13 30 7 1412 564 250 17 52 13 9 20 31 13
internal_value=0.0146603 -0.0587769 0.0652177 -0.0724815 -0.0752033 0.0697328 0.0563905 0.01493 0.0637303 0.0349545 0.0560122 0.0168377 0.0289499 0.00578582
internal_weight=255.677 104.249 151.427 88.2538 86.756 140.736 57.9076 8.70959 49.198 11.9395 10.053 15.9953 12.9314 10.6917
internal_count=2467 1484 983 1420 1413 940 376 52 324 74 61 64 51 43
is_linear=0
shrinkage=0.0712475


Tree=26
num_leaves=15
num_cat=0
split_feature=11 9 4 12 2 4 10 3 0 13 6 11 10 4
split_gain=171.088 20.2278 7.79263 7.00395 3.45259 3.36459 3.23288 11.5878 3.74643 2.53829 5.28186 3.08594 2.048 1.80647
threshold=156.50000000000003 129.50000000000003 48.345602195899858 16.350000000000005 1.5000000000000002 32.500000000000007 78.500000000000014 34.150000000000013 35.500000000000007 1.0000000180025095e-35 1.0000000180025095e-35 157.50000000000003 94.500000000000014 44.263189017990264
decision_type=10 10 2 2 2 2 2 2 2 2 2 10 2 2
left_child=1 3 4 5 6 -1 7 8 -2 -8 12 -12 -11 -3
right_child=2 13 -4 -5 -6 -7 9 -9 -10 10 11 -13 -14 -15
leaf_value=0.13359065104336423 0.075794263863340997 -0.011064462619195805 0.00539122478650914 0.066184384916831387 0.078362520604475433 -0.076173703593454711 0.071909128981408957 -0.17063895626808198 -0.063064849592002328 0.079509538582826611 0.036024671439019676 -0.10982313492933403 -0.0068980564451794754 0.037320955724985443
leaf_weight=0.39003896713256736 5.8004943877458555 7.0565917193889609 10.663346692919729 1.8196229934692372 77.794544003903866 80.452545057982206 35.181071013212204 1.4265776723623274 1.1883630976080892 6.8468277901411039 1.2827436029911035 1.7290882542729376 1.7478524371981619 8.8033491373062116
leaf_count=1 34 29 43 9 564 1410 250 6 12 47 8 10 9 35
internal_value=0.0144026 -0.0579094 0.0639939 -0.0720502 0.0686925 -0.0751617 0.0550651 0.0144105 0.0521831 0.0623774 0.0334853 -0.0477063 0.0619373 0.0157927
internal_weight=242.183 98.5221 143.661 82.6622 132.998 80.8426 55.203 8.41544 6.98886 46.7876 11.6065 3.01183 8.59468 15.8599
internal_count=2467 1484 983 1420 940 1411 376 52 46 324 74 18 56 64
is_linear=0
shrinkage=0.0712475


Tree=27
num_leaves=15
num_cat=0
split_feature=11 9 4 12 2 4 10 3 0 13 6 11 10 15
split_gain=156.601 19.2531 7.61886 6.49267 3.41908 3.06652 3.01259 10.0327 3.40779 2.44897 4.77333 2.67669 1.97229 1.77921
threshold=156.50000000000003 129.50000000000003 48.345602195899858 16.350000000000005 1.5000000000000002 32.500000000000007 78.500000000000014 34.150000000000013 35.500000000000007 1.0000000180025095e-35 1.0000000180025095e-35 157.50000000000003 94.500000000000014 124.16666666666667
decision_type=10 10 2 2 2 2 2 2 2 2 2 10 2 8
left_child=1 3 4 5 6 -1 7 8 -2 -8 12 -12 -11 -3
right_child=2 13 -4 -5 -6 -7 9 -9 -10 10 11 -13 -14 -15
leaf_value=0.12579449820857186 0.074413115978686342 0.02765269795646175 0.0050079176294742477 0.063936895544585925 0.077712878112710118 -0.07582852524798657 0.070887902617515 -0.15599645670767204 -0.059229672061468716 0.078878311153069258 0.033170827827217933 -0.10246833468120048 -0.0063881357890466272 -0.029857559950110305
leaf_weight=0.38487449288368125 5.4982452690601331 12.215715155005451 10.661697931587694 1.7518920898437489 73.0284114331007 75.248641736805439 33.21671075373888 1.4483329504728315 1.1756434328854082 6.4251536726951581 1.2934349030256265 1.7214359417557714 1.7527143657207487 3.5168787389993676
leaf_count=1 34 50 43 9 564 1410 250 6 12 47 8 10 9 14
internal_value=0.0141546 -0.0570542 0.0628313 -0.0716617 0.0677413 -0.0748025 0.0538791 0.0139831 0.0508712 0.0611758 0.0323531 -0.0442766 0.0606037 0.0147968
internal_weight=229.34 93.118 136.222 77.3854 125.56 75.6335 52.5317 8.12222 6.67389 44.4094 11.1927 3.01487 8.17787 15.7326
internal_count=2467 1484 983 1420 940 1411 376 52 46 324 74 18 56 64
is_linear=0
shrinkage=0.0712475


Tree=28
num_leaves=15
num_cat=0
split_feature=11 9 4 12 2 9 11 3 11 11 10 7 10 15
split_gain=143.285 18.3878 7.44644 6.10834 3.38631 2.81382 3.71234 3.19566 15.2112 2.23537 3.26221 1.76287 3.81776 3.54061
threshold=156.50000000000003 129.50000000000003 48.345602195899858 16.850000000000005 1.5000000000000002 172.50000000000003 203.50000000000003 35.45000000000001 199.50000000000003 159.50000000000003 93.500000000000014 1.0000000180025095e-35 93.500000000000014 109.16666666666667
decision_type=10 10 2 2 2 10 10 2 10 10 2 2 2 10
left_child=1 3 4 -1 5 7 -7 9 -9 10 -2 13 -13 -3
right_child=2 11 -4 -5 -6 6 -8 8 -10 -11 -12 12 -14 -15
leaf_value=-0.074080396504856066 -0.079233721660016729 -0.042792561990533627 0.0046518450746787093 0.082478245788677074 0.077106488422401712 -0.06306821793793338 0.078570549404447326 -0.14380839385469121 0.078422942732490675 0.070557581732706293 0.084729680488637757 0.025939122412366063 -0.084759801345491034 0.061421320671734447
leaf_weight=71.136824421584606 1.2677751295268529 2.2156888991594297 10.660088881850241 1.2879560589790333 68.521834254264832 2.3091098219156261 1.5835028141736982 2.1764893382787696 5.551058828830719 35.901150718331337 1.198064401745796 4.4897864758968344 2.4414318352937698 6.5382183939218521
leaf_count=1413 19 10 43 7 564 9 12 12 43 273 8 17 10 27
internal_value=0.0139039 -0.0561494 0.0616893 -0.0712963 0.0668199 0.0527191 -0.00544999 0.0576314 0.0158307 0.0660505 0.000430301 0.0137899 -0.0130531 0.0350439
internal_weight=217.279 88.1099 129.169 72.4248 118.509 49.9872 3.89261 46.0945 7.72755 38.367 2.46584 15.6851 6.93122 8.75391
internal_count=2467 1484 983 1420 940 376 21 355 55 300 27 64 27 37
is_linear=0
shrinkage=0.0712475


Tree=29
num_leaves=15
num_cat=0
split_feature=11 9 4 2 11 3 10 9 15 10 4 0 11 3
split_gain=131.155 17.4196 7.27757 5.95076 3.35074 16.3628 4.93783 3.0685 2.04874 4.4781 4.65927 1.74551 1.63981 1.56175
threshold=156.50000000000003 129.50000000000003 48.345602195899858 1.5000000000000002 197.50000000000003 34.150000000000013 109.50000000000001 172.50000000000003 100.50000000000001 96.500000000000014 61.500000000000007 41.500000000000007 159.50000000000003 25.950000000000003
decision_type=10 10 2 2 10 2 2 10 8 2 2 2 10 2
left_child=1 3 4 -1 5 6 7 12 -4 -10 -11 13 -2 -3
right_child=2 11 8 -5 -6 -7 -8 -9 9 10 -12 -13 -14 -15
leaf_value=-0.074595529351796863 0.019469171332069296 -0.044411804319030565 0.066328908957987737 0.048086783678575544 0.077560829530782832 -0.10514255997406191 -0.069864506364203285 -0.029977144896027853 -0.079283973534536312 -0.044794081899390575 0.088402560301380329 0.07102707337247291 0.073555977033022801 0.015808984215884034
leaf_weight=65.781771443784237 3.044900342822074 2.7684451490640631 2.1573239415883991 2.0701610893011084 59.212925501167774 3.1295492798089972 1.3834362030029286 1.611969232559203 3.1224000826478004 2.4398543387651443 2.9389491230249405 2.2515429258346549 43.43818461894989 10.391092494130133
leaf_count=1410 32 12 7 10 518 17 10 6 17 10 9 11 357 41
internal_value=0.0136715 -0.0553215 0.0605739 -0.0708525 0.0659357 0.0528512 0.0628444 0.0666617 0.00432107 -0.0114145 0.0279838 0.0130582 0.070013 0.00314
internal_weight=205.743 83.263 122.479 67.8519 111.821 52.608 49.4785 48.0951 10.6585 8.5012 5.3788 15.4111 46.4831 13.1595
internal_count=2467 1484 983 1420 940 422 405 395 43 36 19 64 389 53
is_linear=0
shrinkage=0.0712475


Tree=30
num_leaves=15
num_cat=0
split_feature=11 9 4 14 11 3 9 10 15 3 15 9 7 15
split_gain=119.968 16.5966 6.96481 5.67362 3.3855 14.5977 4.75094 3.7652 1.79253 4.10769 2.43476 1.67767 1.99304 3.93345
threshold=156.50000000000003 129.50000000000003 48.345602195899858 1.0000000180025095e-35 197.50000000000003 35.350000000000001 172.50000000000003 109.50000000000001 100.50000000000001 25.950000000000003 118.16666666666667 179.50000000000003 1.0000000180025095e-35 109.16666666666667
decision_type=10 10 2 2 10 2 10 2 8 2 10 10 2 10
left_child=1 3 4 -1 5 6 7 -2 -4 10 -10 12 13 -3
right_child=2 11 8 -5 -6 -7 -8 -9 9 -11 -12 -13 -14 -15
leaf_value=-0.07469045084146278 0.068965629416155666 -0.037886293695141529 0.06246303581696222 0.036159705575617859 0.0770974969719843 -0.10881580027396548 -0.045286254339395079 -0.057596021588925107 -0.0099516697292473758 -0.058003098711984169 0.1022604314581438 -0.045953734154194847 -0.010264032687701662 0.077598509290594364
leaf_weight=61.111744862049818 44.216832196339965 2.065261632204054 2.1286894083023045 2.4373139292001715 55.460314102470875 2.7246509492397299 2.0517840832471839 1.2263190671801556 2.1187363192439084 4.4129128605127335 1.8287846744060514 2.1597725600004187 5.6235198974609375 5.4425199776887894
leaf_count=1408 391 9 7 12 518 14 8 9 12 18 6 9 22 24
internal_value=0.01343 -0.0544039 0.0594667 -0.070439 0.0649628 0.0515617 0.0607621 0.0655503 0.00409273 -0.0107692 0.0420333 0.012237 0.0218079 0.0458306
internal_weight=195.009 78.8401 116.169 63.5491 105.68 50.2196 47.4949 45.4432 10.4891 8.36043 3.94752 15.2911 13.1313 7.50778
internal_count=2467 1484 983 1420 940 422 408 400 43 36 18 64 55 33
is_linear=0
shrinkage=0.0712475


Tree=31
num_leaves=15
num_cat=0
split_feature=11 9 4 12 2 13 6 11 15 9 10 15 4 15
split_gain=109.655 15.7823 6.70926 5.30698 3.45129 2.5949 7.09322 3.64086 3.75439 3.19215 2.09323 1.83164 2.97751 2.94896
threshold=156.50000000000003 133.50000000000003 48.345602195899858 16.350000000000005 1.5000000000000002 1.0000000180025095e-35 1.0000000180025095e-35 178.50000000000003 119.16666666666667 176.50000000000003 98.500000000000014 124.50000000000001 46.011424935268757 110.16666666666667
decision_type=10 10 2 2 2 2 2 10 8 10 2 10 2 10
left_child=1 3 4 10 5 -2 9 8 -8 -7 -1 12 13 -3
right_child=2 11 -4 -5 -6 6 7 -9 -10 -11 -12 -13 -14 -15
leaf_value=-0.074839897834339794 0.062172733249188754 -0.061345815307925197 0.0038456948908128664 0.061528711665192172 0.075528723737084802 0.06500401496901656 0.067118922130406808 -0.1637926694375115 -0.095139048896337036 -0.064030720449024164 0.016393462344223463 -0.031532672261181685 0.071631917271985313 0.038831626479107748
leaf_weight=57.599807076156139 27.314430728554726 2.6103492528200132 10.411886468529699 1.5313672870397557 56.60944140702486 10.939006842672827 1.4607125371694558 1.1360440105199812 1.4350305981934068 1.068256951868533 1.3055128455162037 3.3714747577905646 4.6449556797742844 3.4806099086999893
leaf_count=1410 253 13 43 9 564 88 5 5 19 6 5 14 19 14
internal_value=0.0131858 -0.053575 0.0582742 -0.0694138 0.0639434 0.0488157 0.0260686 -0.0556978 -0.0132905 0.0535241 -0.0728179 0.014279 0.0286655 -0.00410055
internal_weight=184.919 74.5441 110.375 60.4367 99.9629 43.3535 16.0391 4.03179 2.89574 12.0073 58.9053 14.1074 10.7359 6.09096
internal_count=2467 1484 983 1424 940 376 123 29 24 94 1415 60 46 27
is_linear=0
shrinkage=0.0712475


Tree=32
num_leaves=15
num_cat=0
split_feature=11 9 11 3 14 3 3 9 0 2 0 1 8 4
split_gain=100.239 14.9608 6.60428 13.1957 5.09135 4.43673 4.04358 2.91949 7.73252 2.69095 1.49342 1.49056 2.37124 1.84194
threshold=156.50000000000003 129.50000000000003 198.50000000000003 34.150000000000013 1.0000000180025095e-35 37.650000000000013 23.655367885970673 137.50000000000003 30.500000000000004 1.0000000180025095e-35 41.500000000000007 1.5000000000000002 1.0000000180025095e-35 44.94833346245364
decision_type=10 10 10 2 2 2 2 8 2 2 2 2 2 2
left_child=1 4 3 6 -1 -5 -2 -8 -9 -10 11 -3 -13 -14
right_child=2 10 -4 5 -6 -7 7 8 9 -11 -12 12 13 -15
leaf_value=-0.074228793941159929 -0.027913907325279257 0.042495355903698247 0.076302917607531454 -0.13991409382908473 0.033319611947392594 -0.011414825965562994 0.075132313544751791 -0.10266598670845486 -0.013204229166801454 0.060685786411622089 0.067354299847878801 -0.050193741711109366 -0.02087153003818347 0.066506895723580706
leaf_weight=53.315618641674519 3.0173557549715033 3.3643263131380072 48.691594339907169 2.2572742849588385 2.3321550339460364 3.4465031772851944 23.308002732694149 1.7909263595938707 2.8706170916557339 19.479239346459508 2.0474696084856978 4.4880993366241437 2.5267200618982315 2.3764180094003677
leaf_count=1408 14 13 517 12 12 15 216 11 18 180 11 19 11 10
internal_value=0.0129398 -0.0527877 0.0570986 0.0404511 -0.0697215 -0.0622685 0.0520606 0.0571464 0.0397809 0.0511953 0.0108702 0.00180356 -0.0127739 0.0214784
internal_weight=175.312 70.4508 104.862 56.1699 55.6478 5.70378 50.4661 47.4488 24.1408 22.3499 14.803 12.7556 9.39124 4.90314
internal_count=2467 1484 983 466 1420 27 439 425 209 198 64 53 40 21
is_linear=0
shrinkage=0.0712475


Tree=33
num_leaves=15
num_cat=0
split_feature=11 9 11 3 12 3 3 9 0 4 3 3 10 15
split_gain=91.5545 14.267 6.6145 11.8026 4.78038 3.86961 3.69679 2.94058 6.73639 2.58741 1.99458 2.95218 1.91283 1.37322
threshold=156.50000000000003 133.50000000000003 198.50000000000003 34.150000000000013 16.350000000000005 37.650000000000013 23.655367885970673 137.50000000000003 30.500000000000004 48.345602195899858 25.150000000000002 28.850000000000005 98.500000000000014 109.83333333333336
decision_type=10 10 10 2 2 2 2 8 2 2 2 2 2 10
left_child=1 4 3 6 12 -5 -2 -8 -9 -10 -3 -12 -1 -13
right_child=2 10 -4 5 -6 -7 7 8 9 -11 11 13 -14 -15
leaf_value=-0.074426021587903471 -0.026058615452655764 -0.04189694176242259 0.075937482993296931 -0.13073248151169048 0.0595747428809296 -0.010573950176890093 0.074331241089985539 -0.093141571745433388 0.059963536007316923 -0.0069429035316198422 0.076932828108327161 -0.047693977984280267 0.01320430848056494 0.020060149173875285
leaf_weight=50.284045744687319 3.0024621039628974 2.7052427083253852 45.55345369130373 2.2441383153200141 1.4358636140823353 3.4551649317145348 21.930666834115982 1.8317995220422769 18.153454339131716 3.4996950775384894 3.8256322816014272 2.1834986507892609 1.297084018588065 4.9856431782245636
leaf_count=1410 14 12 517 12 9 15 216 11 182 16 19 10 5 19
internal_value=0.0126926 -0.0519047 0.0559323 0.0390929 -0.068653 -0.0578872 0.0505085 0.0555704 0.0380512 0.0491498 0.0129086 0.0263934 -0.0722224 -0.00057566
internal_weight=166.388 66.717 99.6708 54.1174 53.017 5.6993 48.4181 45.4156 23.4849 21.6531 13.7 10.9948 51.5811 7.16914
internal_count=2467 1484 983 466 1424 27 439 425 209 198 60 48 1415 29
is_linear=0
shrinkage=0.0712475


Tree=34
num_leaves=15
num_cat=0
split_feature=11 9 11 3 14 11 15 2 10 3 15 9 7 15
split_gain=83.6601 13.5586 6.5944 10.7265 4.59325 3.81317 3.41475 5.18015 6.27573 4.12176 2.51044 1.53481 1.80259 3.16066
threshold=156.50000000000003 129.50000000000003 198.50000000000003 35.350000000000001 1.0000000180025095e-35 178.50000000000003 102.16666666666667 1.0000000180025095e-35 79.500000000000014 30.550000000000004 126.16666666666667 179.50000000000003 1.0000000180025095e-35 109.16666666666667
decision_type=10 10 10 2 2 10 8 2 2 2 10 10 2 10
left_child=1 4 3 6 -1 -5 -2 9 -9 -8 -10 12 13 -3
right_child=2 11 -4 5 -6 -7 7 8 10 -11 -12 -13 -14 -15
leaf_value=-0.073835533829361449 0.071022914651167265 -0.032615133179122985 0.075599919365831283 0.0040452904695311301 0.030730302028361516 -0.11817930529611055 -0.081742991408561741 -0.090829586745223553 0.062563319349379393 0.055712015364742164 -0.057765682234847675 -0.046491774274674338 -0.011379574007348835 0.074177502008277968
leaf_weight=46.476033564656973 19.832384847104549 1.9742972701787929 42.60336709022522 2.4968929737806311 2.2350034117698661 2.6933880001306534 3.20315904170275 1.5643697641789938 19.699033197015527 1.6925261989235876 0.9212941899895658 2.1154747158288947 5.4547896683216095 4.8942492455244064
leaf_count=1408 210 9 517 11 12 13 14 17 179 14 8 9 22 24
internal_value=0.0124548 -0.0510639 0.0548088 0.0378085 -0.0690377 -0.0593806 0.0485612 0.0321112 0.0467496 -0.0342223 0.0571871 0.00957321 0.0191976 0.043481
internal_weight=157.856 63.1498 94.7064 52.103 48.711 5.19028 46.9128 27.0804 22.1847 4.89569 20.6203 14.4388 12.3233 6.86855
internal_count=2467 1484 983 466 1420 24 442 232 204 28 187 64 55 33
is_linear=0
shrinkage=0.0712475


Tree=35
num_leaves=15
num_cat=0
split_feature=11 9 11 3 12 15 2 10 3 11 15 15 4 10
split_gain=76.4179 12.9686 6.55828 9.58278 4.3647 3.31765 4.63434 5.66196 3.57414 3.23042 2.25171 1.7031 2.62112 2.39706
threshold=156.50000000000003 133.50000000000003 198.50000000000003 35.350000000000001 16.850000000000005 102.16666666666667 1.0000000180025095e-35 79.500000000000014 30.550000000000004 178.50000000000003 126.16666666666667 124.50000000000001 46.011424935268757 89.500000000000014
decision_type=10 10 10 2 2 8 2 2 2 10 10 10 2 2
left_child=1 4 3 5 -1 -2 8 -8 -7 -5 -9 12 13 -3
right_child=2 11 -4 9 -6 6 7 10 -10 -11 -12 -13 -14 -15
leaf_value=-0.071194816580801581 0.070110866988753587 -0.041545237495546242 0.075287892848777294 0.0037579465884520036 0.079358871116454052 -0.075765436519337009 -0.089431357187641031 0.060437752118835932 0.053729959352527272 -0.10843138457152503 -0.051728676694918117 -0.032881048066169455 0.068282644513841639 0.053147974262014869
leaf_weight=45.490004347637296 18.700188830494881 3.538344740867613 39.832073390483856 2.4963349699974051 0.99895086884498496 3.209373943507674 1.478738941252234 18.966181624680761 1.6321673691272733 2.7250888645648956 0.95421061664819617 3.2710341960191718 4.3118318468332291 2.2011907547712326
leaf_count=1417 210 17 517 11 7 14 17 179 14 13 8 14 19 10
internal_value=0.0122194 -0.0501998 0.053704 0.0365651 -0.0679597 0.0471796 0.0308378 0.0450798 -0.0321103 -0.0547943 0.0550648 0.0117738 0.026306 -0.00522908
internal_weight=149.806 59.8114 89.9944 50.1623 46.489 44.9409 26.2407 21.3991 4.84154 5.22142 19.9204 13.3224 10.0514 5.73954
internal_count=2467 1484 983 466 1424 442 232 204 28 24 187 60 46 27
is_linear=0
shrinkage=0.0712475


Tree=36
num_leaves=15
num_cat=0
split_feature=11 9 11 3 14 15 2 10 3 0 15 15 4 15
split_gain=69.712 12.3503 6.51951 8.56739 4.30631 3.21996 4.14204 5.10579 3.10481 3.08754 2.34108 1.29432 2.24369 2.42537
threshold=156.50000000000003 129.50000000000003 198.50000000000003 35.350000000000001 1.0000000180025095e-35 102.16666666666667 1.0000000180025095e-35 79.500000000000014 30.550000000000004 39.500000000000007 126.50000000000001 124.50000000000001 46.011424935268757 110.16666666666667
decision_type=10 10 10 2 2 8 2 2 2 2 10 10 2 10
left_child=1 4 3 5 -1 -2 8 -8 -7 -5 -9 12 13 -3
right_child=2 11 -4 9 -6 6 7 10 -10 -11 -12 -13 -14 -15
leaf_value=-0.07348984292480705 0.069190140838606154 -0.059100400410256645 0.074999273260398264 -0.090502890156686472 0.030017244222693275 -0.070359147827928986 -0.088134440808591979 0.058395473793017953 0.051755107132108027 0.024375856795851688 -0.060178178416068887 -0.03033979274745336 0.056530655900493693 0.032811774658475526
leaf_weight=40.582883559167385 17.637644685804844 2.6675239875912649 37.230460494756699 3.4247270673513404 2.1483612060546866 3.2097016572952297 1.3965755887329603 18.385084770619873 1.5758170783519743 1.8180602490901945 0.88596873730420966 3.2916420400142661 4.8626215010881424 3.212483674287796
leaf_count=1408 210 14 517 16 12 14 17 180 14 8 7 14 22 14
internal_value=0.0119774 -0.0492406 0.0525911 0.0353305 -0.0682859 0.0457935 0.0295809 0.043411 -0.0301483 -0.050666 0.0529442 0.00874823 0.0207252 -0.0088851
internal_weight=142.33 56.7655 85.564 48.3336 42.7312 43.0908 25.4531 20.6676 4.78552 5.24279 19.2711 14.0343 10.7426 5.88001
internal_count=2467 1484 983 466 1420 442 232 204 28 24 187 64 50 28
is_linear=0
shrinkage=0.0712475


end of trees

feature_importances:
OGTT=90
HDL=70
Sys_BP=62
Dia_BP=61
BMI=60
MAP=44
Large_Child_or_Birth_Default=23
Gestation_in_previous_Pregnancy=19
Hemoglobin=19
Prediabetes=19
Age=12
unexplained_prenetal_loss=11
Sedentary_Lifestyle=11
PCOS=10
Family_History=6
No_of_Pregnancy=1

parameters:
[boosting: gbdt]
[objective: binary]
[metric: auc,binary_logloss]
[tree_learner: serial]
[device_type: cpu]
[data_sample_strategy: bagging]
[data: ]
[valid: ]
[num_iterations: 2000]
[learning_rate: 0.0712475]
[num_leaves: 15]
[num_threads: 2]
[seed: 42]
[deterministic: 0]
[force_col_wise: 0]
[force_row_wise: 0]
[histogram_pool_size: -1]
[max_depth: 7]
[min_data_in_leaf: 9]
[min_sum_hessian_in_leaf: 0.001]
[bagging_fraction: 0.653586]
[pos_bagging_fraction: 1]
[neg_bagging_fraction: 1]
[bagging_freq: 0]
[bagging_seed: 400]
[bagging_by_query: 0]
[feature_fraction: 0.972707]
[feature_fraction_bynode: 1]
[feature_fraction_seed: 30056]
[extra_trees: 0]
[extra_seed: 12879]
[early_stopping_round: 0]
[early_stopping_min_delta: 0]
[first_metric_only: 0]
[max_delta_step: 0]
[lambda_l1: 3.18622e-07]
[lambda_l2: 8.58911e-07]
[linear_lambda: 0]
[min_gain_to_split: 0]
[drop_rate: 0.1]
[max_drop: 50]
[skip_drop: 0.5]
[xgboost_dart_mode: 0]
[uniform_drop: 0]
[drop_seed: 17869]
[top_rate: 0.2]
[other_rate: 0.1]
[min_data_per_group: 100]
[max_cat_threshold: 32]
[cat_l2: 10]
[cat_smooth: 10]
[max_cat_to_onehot: 4]
[top_k: 20]
[monotone_constraints: ]
[monotone_constraints_method: basic]
[monotone_penalty: 0]
[feature_contri: ]
[forcedsplits_filename: ]
[refit_decay_rate: 0.9]
[cegb_tradeoff: 1]
[cegb_penalty_split: 0]
[cegb_penalty_feature_lazy: ]
[cegb_penalty_feature_coupled: ]
[path_smooth: 0]
[interaction_constraints: ]
[verbosity: -1]
[saved_feature_importance_type: 0]
[use_quantized_grad: 0]
[num_grad_quant_bins: 4]
[quant_train_renew_leaf: 0]
[stochastic_rounding: 1]
[linear_tree: 0]
[max_bin: 255]
[max_bin_by_feature: ]
[min_data_in_bin: 3]
[bin_construct_sample_cnt: 200000]
[data_random_seed: 175]
[is_enable_sparse: 1]
[enable_bundle: 1]
[use_missing: 1]
[zero_as_missing: 0]
[feature_pre_filter: 1]
[pre_partition: 0]
[two_round: 0]
[header: 0]
[label_column: ]
[weight_column: ]
[group_column: ]
[ignore_column: ]
[categorical_feature: ]
[forcedbins_filename: ]
[precise_float_parser: 0]
[parser_config_file: ]
[objective_seed: 16083]
[num_class: 1]
[is_unbalance: 0]
[scale_pos_weight: 1.56712]
[sigmoid: 1]
[boost_from_average: 1]
[reg_sqrt: 0]
[alpha: 0.9]
[fair_c: 1]
[poisson_max_delta_step: 0.7]
[tweedie_variance_power: 1.5]
[lambdarank_truncation_level: 30]
[lambdarank_norm: 1]
[label_gain: ]
[lambdarank_position_bias_regularization: 0]
[eval_at: ]
[multi_error_top_k: 1]
[auc_mu_weights: ]
[num_machines: 1]
[local_listen_port: 12400]
[time_out: 120]
[machine_list_filename: ]
[machines: ]
[gpu_platform_id: -1]
[gpu_device_id: -1]
[gpu_use_dp: 0]
[num_gpu: 1]

end of parameters

pandas_categorical:[]
